<Nnet>
<Splice> 30 30
[ 0 ]
<AddShift> 30 30
<LearnRateCoef> 0 [ -12.21177529471944 -14.046581834218935 -15.796159276819159 -16.236141445136884 -16.031282304015964 -15.562748290574564 -15.33814855876092 -15.245344533098597 -15.325543188669629 -15.211153467958145 -15.164278136744652 -15.257774716861297 -15.214120820320248 -15.14646161789388 -15.037728766508938 -14.849012067831966 -14.903508666083594 -14.933504330633296 -14.903105060304076 -14.74019455626096 -14.724963136994447 -14.837130826543678 -15.132222671524499 -15.204243026510534 -14.912592906042162 -14.751380651738081 -14.984244793946093 -15.063433733705786 -15.065753009076861 -14.837592707562074 ]
<Rescale> 30 30
<LearnRateCoef> 0 [ 0.3169139741535872 0.27154668538348115 0.2515824837545781 0.24729503475286319 0.2474556939090027 0.24629128074713008 0.244692918425565 0.24214339421307574 0.24564915430841608 0.25106808182791907 0.2507734337087104 0.2487370540210536 0.24776510646026706 0.2458259638062665 0.2466109901086552 0.2500568452644319 0.2545932377001877 0.2564493743953431 0.2570685383276694 0.25516761933494087 0.2538024002805268 0.25949685469055445 0.2526866058869461 0.2502032619779879 0.2551808239792753 0.26029345123940273 0.25416233421484896 0.25019486928667506 0.2484399981929859 0.2418703123643409 ]
</Nnet>
